digraph Tree {
node [shape=box] ;
0 [label="PageValues <= 0.034\nmse = 0.129\nsamples = 6165\nvalue = 0.152"] ;
1 [label="Month_Nov <= 0.5\nmse = 0.037\nsamples = 4817\nvalue = 0.038"] ;
0 -> 1 [labeldistance=2.5, labelangle=45, headlabel="True"] ;
2 [label="Administrative_Duration <= 14.875\nmse = 0.017\nsamples = 3702\nvalue = 0.018"] ;
1 -> 2 ;
3 [label="ProductRelated_Duration <= 197.7\nmse = 0.004\nsamples = 2224\nvalue = 0.004"] ;
2 -> 3 ;
4 [label="mse = 0.001\nsamples = 1004\nvalue = 0.001"] ;
3 -> 4 ;
5 [label="mse = 0.007\nsamples = 1220\nvalue = 0.007"] ;
3 -> 5 ;
6 [label="mse = 0.036\nsamples = 1478\nvalue = 0.038"] ;
2 -> 6 ;
7 [label="mse = 0.095\nsamples = 1115\nvalue = 0.106"] ;
1 -> 7 ;
8 [label="mse = 0.247\nsamples = 1348\nvalue = 0.558"] ;
0 -> 8 [labeldistance=2.5, labelangle=-45, headlabel="False"] ;
}